{
  "weights": [
    [
      [
        [-0.08356844609607803, -0.022788063356769413, -0.2508033442809454],
        [-0.12207629910538362, 0.31897931339491614, 0.013089226218721248],
        [0.06026078621622607, -0.12161481010946873, 0.04078587569146546],
        [-0.23323191012017508, -0.03452082185482808, 0.6439451596570931]
      ],
      [
        [-0.13829242445370682, 0.06234588702093983, 0.5472641070661425],
        [-0.3525364040960783, 0.29070190198066154, 0.1750718867550152],
        [0.6708221606171368, 1.2337072624560887, -0.17068632626213537],
        [0.11092894299341605, -0.6154318728649445, 0.3784296356664984]
      ],
      [
        [0.1586993095424317, 0.04361042861857297, 0.28333720369010573],
        [-0.5991405109862108, 0.181473919613566, 0.416844152277727],
        [0.6554231746263441, 0.0013234129624451558, -0.8443794917094618],
        [-0.5545922232264082, 0.16156979615378117, 0.27489737150605575]
      ]
    ],
    [
      [
        [-0.45447415286618453, 0.4208672228324048, -0.41087624744349965],
        [-0.06540628065362283, 0.12511607056812804, 0.2358413757119632],
        [0.36054514443781077, -0.10922546267683267, -0.0263151335043015],
        [0.013924396714160526, -0.28304271653136115, -0.12804952661008434]
      ],
      [
        [-0.20830357810847397, 0.653738889642295, 0.8578477648885603],
        [-0.32480410119449493, 0.32068071570792894, 0.9054413322377285],
        [1.0536555169213422, 0.21803952777568014, -0.21458842206715384],
        [0.3134953747313394, -0.3734958128287199, 0.1983311610935077]
      ],
      [
        [-0.43781668640390786, -0.12183882568441853, 0.7631940118244152],
        [-0.46065536442715316, -0.05733417630401763, -0.09760574857296826],
        [0.5977098754465274, 0.032647616231362295, 0.3558672693665029],
        [0.31784055293959507, -0.3032125164084195, 0.11627373792357973]
      ]
    ],
    [
      [
        [-0.1939725925703541, 0.06316741281681333, -0.15201968223901854],
        [-0.28486631925754013, -0.13264348218653296, -0.25147943431667197],
        [-0.02434264259406264, -0.4684472463555067, 0.2950978843086888],
        [1.0426480092271755, -0.0023370744366484355, -0.1998127227190261]
      ],
      [
        [-0.2297412306136351, -0.48386120315075626, 0.2638833915237057],
        [-0.08165343003599178, 0.26423618872945565, -0.3789878785826634],
        [-0.6202326796639581, -0.16320615021108062, -0.08054296784932867],
        [0.981096347348164, -0.013584769774377546, -0.21031548612985906]
      ],
      [
        [0.04977870491667353, 0.3347065371248852, -0.32348728529106346],
        [-0.2954731801719801, 0.2562489857170726, 0.39812569598589953],
        [-0.06647577405977409, -0.538895028050193, 0.23162384225916463],
        [-0.0738352811555989, 0.373810096074603, 0.2967724994496717]
      ]
    ]
  ],
  "bias": [0.11881565887489028, 0.14021722927902414, 0.029173318948497406]
}
