{
  "weights": [
    [
      -0.6268856940097003, -1.7227129788727755, -0.016176979788986804,
      -1.2945290244777659, 0.6075335496576164, 0.6973973926373201,
      -1.863232265267276, 0.604076283086748, 1.0537271462837066,
      3.142902974279594
    ],
    [
      1.0575726392928255, -0.22219049615415157, -1.296958671997678,
      -0.3948364432464468, -0.45506464494274906, 0.036397084023987544,
      1.947596832467546, -0.699318783980293, -0.16653645506903525,
      -0.15369923778581593
    ],
    [
      -0.588032238383165, -1.2109013713799404, -1.7171071791964487,
      0.6878076823033467, -0.40094858411363765, 2.2229285222828494,
      1.8135434056714435, -0.17559714651972066, -1.2725918446083022,
      0.7415611743598686
    ],
    [
      0.2541571373553347, 0.6812306260651394, 0.006956986555069983,
      0.456178807439823, -1.4208743099114687, -0.5553224461911601,
      -0.29578080045238775, 1.2832514887169517, -0.2500044375511578,
      -0.8748264169182808
    ],
    [
      -0.15520918106290052, -1.155587723405862, -1.0222594305164068,
      1.7624873395797476, -1.8212340393369146, 2.106788425892459,
      -0.25463547072903453, -0.6865048160449663, -0.05917400640415104,
      1.9261140645641084
    ],
    [
      -0.11293223217110933, -0.3905185889137319, -1.0843240526331037,
      -1.307200956449032, 0.7272037999745364, 0.30946929309232085,
      1.5654025412020243, -0.901489592071352, 1.1001399310448268,
      -0.011697239190239194
    ],
    [
      -0.47517793899626715, -0.24735020531911614, -1.0018813531607937,
      1.9324030764818112, -0.31087853517210484, 1.6580596692221905,
      -1.109222455431566, -1.2628265133571452, -1.2757484477946583,
      1.731705064924635
    ],
    [
      0.25039714438394717, 1.4871677125036404, 2.7573085724645514,
      -1.638442856959561, -0.07705255252323012, 0.5314939070762402,
      -0.4441079356142047, -0.6298458845418905, -2.181617152317524,
      -0.4035488131497645
    ],
    [
      -0.1465348398899285, -0.5990888454051989, -0.2731839376985621,
      -0.6989114797946909, -0.8964126962470138, 1.7163618945515824,
      0.9386964462987857, -1.1371132174805438, 0.934202119725993,
      0.6493415027520498
    ],
    [
      1.4857017524119807, -0.44838856282342254, -0.44317849770514445,
      -0.7424797027464825, -0.7855363876897978, 1.3814011766020304,
      0.9176356903614759, -0.053938004002762635, -1.1516011408300373,
      0.4532416593508569
    ],
    [
      -0.4822357228811957, 1.7992742294443984, -1.3593200100014042,
      -1.7599156196647747, 1.849404079276097, -0.4641012248454903,
      -1.1040850879600794, 1.1478504368591458, -0.8757365595466867,
      1.3425790612177224
    ],
    [
      0.9627411286092592, -0.025630368067951714, -1.1229833798656756,
      1.5165944023763729, -1.076563197506761, 1.5260203087260718,
      1.1641300331381694, -1.179360477644768, -1.5723917672151075,
      -0.21025656426867662
    ],
    [
      0.2535741117916908, 1.1220570572855677, -0.38612042858401935,
      -0.79639460866435, -0.27539404933237327, -1.7799267504839373,
      1.2211851493024188, 0.22230623247655606, 2.017439343594827,
      -1.4271993950149315
    ],
    [
      1.0203827352191355, -1.074143212021211, -0.2713134961711942,
      -0.10529833601613857, -1.7637828053499478, 1.969680099931014,
      -0.6105355472630442, 2.0926121919553053, -0.9343764062781662,
      -0.7451870382731371
    ],
    [
      0.5602428355710056, 1.3013770860250045, 0.11565751226880303,
      1.2835835482181208, -0.8240434987268834, -1.5362933097034113,
      -1.3951395330575482, -0.8616666891411653, 0.7168020654186094,
      1.135974260853066
    ],
    [
      -1.1082611066391401, 0.2120288997996575, -2.4156464989495854,
      1.0114502604305455, 0.9597076707547167, 1.8797341988105387,
      -1.7225297350896198, -0.10114405628695483, 0.17067827998721485,
      1.181918078024563
    ],
    [
      -0.03885311867928638, -0.7154598616367613, -0.19016624610230826,
      0.9813412380133968, -1.4272256120938094, -0.3177013565994812,
      1.5851536440704488, 1.4151865255202618, -0.30663855660247036,
      -1.460506851668532
    ],
    [
      -0.972705678041953, 1.3807146923514393, -1.6005079004817337,
      -0.7274805000147956, -0.6545946149008394, 2.098423762738389,
      1.8045216855577768, -1.0091655200256715, 0.04631672536867967,
      -0.682467321378679
    ],
    [
      -0.08613739046762328, -0.2353314179745908, -0.10859088583025561,
      -0.2407263549270768, 0.5897282928767781, 0.2920646343375605,
      -0.09403855523263549, 0.40406329124775486, 0.5974179898252463,
      -0.3625784047295334
    ],
    [
      -0.6658749061761695, 1.1838552940140719, -1.5974209675742985,
      1.6187515713791993, -0.30704205222020775, 1.6604372405463028,
      -1.0581229446450406, -0.9205624894496173, -0.3434298511729532,
      0.3557213494791149
    ],
    [
      0.6662938279312122, -0.00883900086356638, 1.2522040170975801,
      -0.25899594266644815, -0.46392098915579155, 1.19243060923516,
      1.1758503551026411, -1.378099710250472, -0.20421822254550978,
      -1.637165909240873
    ],
    [
      1.0967056051479493, -0.925805773058364, 2.0864474131102457,
      -0.23166282140025202, -1.2962607378255981, -0.4203926936283185,
      -0.13209411463769538, 1.6301646208378018, 0.5199946133487564,
      -1.9499545989848202
    ],
    [
      1.504643434085546, -1.809092737215516, 1.6948324328245876,
      -0.5577739078432311, -2.32243645436882, -1.2705727648372132,
      -0.5009608925175586, 0.1223309819036562, 3.042254890851393,
      0.874350577517857
    ],
    [
      -0.261005961078376, 0.06946384235607816, -0.9968358629020478,
      0.1939337151918813, 0.37776527179238567, 0.5663778799210043,
      -0.1778920827248789, -0.4377428021124216, 1.1199019181440077,
      -0.0749760270456872
    ],
    [
      -0.22500239248578635, 1.0927722065141336, 2.124890077536234,
      0.9982563442544433, -2.043447781821146, -1.01206572144124,
      -0.6867093568770153, 0.48687556511665087, -1.7093473521464941,
      0.6765324618985041
    ],
    [
      -0.2860724098111754, 0.04213286190201138, 0.1512709596947531,
      1.6278618582401276, -0.6260372334731777, -0.42196294184707706,
      -0.24040035456877554, 0.29098237474835403, 1.2745280464154096,
      -1.1086695148510404
    ],
    [
      0.001952849228563229, 0.8802068256953787, 1.5597461042339382,
      -0.8937284888063406, -0.14668438778480286, 0.6845411381936907,
      0.016369245562595287, 1.332470864012101, -1.6756830319585507,
      -1.4902323483425215
    ],
    [
      1.324365748467658, -0.8090740290833474, -0.834851793057143,
      -0.7334854133681091, 1.7186093879370603, -1.4546658511781523,
      1.8440763433880325, -0.6006157234211501, -0.2998116363951751,
      0.3968808589908738
    ],
    [
      -0.23976109787689034, -0.8698670017389132, -0.4970059332825486,
      1.587327024344642, -0.558007375828755, 1.4336991194118867,
      -1.9876920356724477, 0.6286596447630423, -1.2829392887195912,
      0.9878614329757228
    ],
    [
      0.0845768035068737, -0.6853700798720531, -0.18612590889443803,
      -0.05283692352095411, -0.7561250487350967, 0.04521914320392768,
      2.073902292917251, -0.1565658722850939, 0.386620067609559,
      -0.8057619762023578
    ],
    [
      2.0512318789075508, 0.20974650700357372, -0.8862155895760798,
      -0.5883031894962203, -0.3446945982170596, -1.028733979418077,
      -0.4917922771932512, 0.2374314638705987, 0.24246861335431596,
      0.8442825068389869
    ],
    [
      1.0504629048184209, 0.5536097591444595, -0.6319568910723335,
      -0.6762194682235172, -1.1919218038314023, -0.3005117401439331,
      -1.0125449017192436, 1.2103532181571595, -0.3526836297120209,
      1.097621321851335
    ],
    [
      -2.2739651040325306, 0.16664957532351946, 1.8285034167203724,
      2.6997421466628357, -0.5047068912802538, -0.06291470094238245,
      -1.056807826685149, 2.570437900809701, -0.8326645971120971,
      -2.7190978105918195
    ],
    [
      0.11659105332522547, 0.12783340674735752, -0.23300018649349943,
      0.33818188446031766, 0.12414545637559869, 0.32640986263772287,
      -0.13031811331860882, -0.1529274715515362, 0.025676372352974947,
      -0.40077290715449904
    ],
    [
      -0.48169860817768567, 1.9968085434106528, 0.06363288486088761,
      -1.4996253126392565, 0.15738371903718798, -1.4259127191498755,
      0.29016853020407085, 0.2093843221618723, -0.014622973138078256,
      0.16162491451350172
    ],
    [
      -0.3261376166302957, 1.9841605934573612, 1.8048058394260607,
      -0.09552709864197362, -0.8044449044500056, -0.3615933279823398,
      0.06932979765289687, -0.6269497490445665, 0.017628637258045442,
      -1.5499557942830942
    ],
    [
      2.0946381631046815, 0.5242029876715727, 2.3308028032890182,
      -1.944628339005994, 1.0870432523798663, -2.248018412964116,
      1.0773736428846243, -1.5103521036120957, -2.0688128860569086,
      0.9609708824781156
    ],
    [
      0.581870329871538, -0.7456368721429979, 1.4256560656552646,
      0.7248355608143827, -1.1761091402216313, 1.6450695872498144,
      0.6133034322192211, -1.7556338480513827, 0.4476582623581425,
      -0.7543327183073766
    ],
    [
      -1.7147226885594142, 0.5284648736339108, 1.9764740659174902,
      -0.08332946803750402, 0.31108945160637236, -1.3725758512951856,
      0.34004236024171564, 1.2721158390759988, -0.6036957921342055,
      -1.2400843676820779
    ],
    [
      -0.24035719644010903, 2.2373883100502674, -1.1083254745970663,
      -1.1417316606814754, -0.6742879168180147, 1.9054254305577776,
      -0.09693400709244421, -0.03592814917953496, -0.42699223771348815,
      -0.7204360116769941
    ],
    [
      0.30450615803441394, 1.328024226455068, -0.1871188009000283,
      -1.1604576912033968, -0.2080727743778636, -0.23975851090168432,
      0.6254802044622871, -0.31534969747023023, 0.08891236017649143,
      -0.35042293739532776
    ],
    [
      -1.9777082740446583, -0.15470204243150884, 0.15746791211944067,
      -0.42267385265231, 0.8124212306202048, 0.5241032243957379,
      -1.8286493858711292, 0.604248413331679, 2.035314162722318,
      0.20178398636439845
    ],
    [
      1.4759125944790006, -0.5925202226475721, -1.000540954129105,
      0.10971303589541541, 2.537842181743279, -1.7780018910732436,
      1.5334211075004398, 0.3177230056533255, -1.458992302556753,
      -1.0763372785778937
    ],
    [
      -1.1942470057992138, 0.23499900053973266, 0.5829778212308726,
      -0.8275128568809869, 2.8258067253714336, -0.22657573777146428,
      -1.3906444048833053, -0.24086268032711647, 0.7871076854794057,
      0.23472420385882006
    ],
    [
      0.5739930404936819, -0.7155642532264027, -0.02926890714553496,
      2.3218293271063275, -1.2602537226212625, -0.5406203517730308,
      -1.3552217835003497, 1.0507252443538175, -0.6638757312030041,
      1.03719344632046
    ],
    [
      -0.7046712168774326, 1.752573551259146, -0.9145433886360798,
      1.1765653569066568, 0.9470181540392929, -1.5907107874842974,
      -0.610920835840529, -0.1323983618187251, -0.4688336358753411,
      0.050574050918381984
    ],
    [
      -0.6130354786758135, 1.7830040244995138, 0.03157005988555528,
      -0.44350231742529267, -0.19016510776937362, -0.471569753001693,
      -0.4550479445262324, 2.947562768697228, -1.5797393497624994,
      -1.258529079075777
    ],
    [
      0.9294980185965561, 0.09285241956958816, -0.8765998958433057,
      -1.382369788396776, 0.713743155233932, 0.021410569008661513,
      -1.3468152295798337, 0.05087676175681216, 0.1515959841000259,
      1.960648979348898
    ],
    [
      -0.9327984928776607, 0.6644275090497329, 0.3742166359595679,
      -0.8599518054249039, 0.6891094336635243, -0.6269982647945704,
      -0.25069376497316387, 2.493189701580203, -0.8148151581665566,
      -0.9309683151199479
    ],
    [
      -0.40143118910786485, -0.26512458411755385, 1.1433518601128236,
      -0.42255484965791357, 2.6168238250431597, 0.07041428964530425,
      -1.18672344904961, -1.2069156687431846, -0.8469469616168435,
      0.3675635864641153
    ],
    [
      -1.5945314212234851, 1.6114268346318383, -0.4337383383152361,
      0.5733871209928437, -1.1294105904255818, 0.4780091811394926,
      1.5170486678130726, -0.6142436893010802, 0.7020367993065848,
      -0.8340345112271949
    ],
    [
      -0.2098762016655259, -0.14866586502346474, -0.7097329697822072,
      -1.0856359981642745, 1.9224445391065115, -0.7420882652352595,
      -0.4396253151036893, 1.6033435516414063, -1.5484249851720389,
      1.4412399515173717
    ],
    [
      2.0185429265369854, 0.2765485470899009, -0.41479218775870474,
      -0.8822986675808705, -0.10341252879593663, -0.27081652554933094,
      0.6587896494400457, -1.121988279650228, 1.3073949721056506,
      -0.8106441557705126
    ],
    [
      1.8984623269178977, -1.3834602056770908, 2.4237279472508106,
      0.9449190132381564, -0.1790220208528059, -2.1565043624676354,
      -1.4425198190117885, 0.07910891676974677, 0.32742868379437995,
      -0.32544226518632835
    ],
    [
      -0.11064981581366737, 0.20942746728346576, 0.14971645650357135,
      -0.32367647833953045, 0.5315424485235003, -0.20859285424786966,
      -0.1857220658725472, -0.30905244998274095, 0.3668005169933742,
      -0.03421536892329511
    ],
    [
      -0.6049074186296713, 0.25222231873193485, -0.049791617804238325,
      -1.4499844897552094, 1.3241022111894325, -1.100528524517272,
      0.8428758332629712, 2.068685075409322, -0.23112643832976376,
      -0.5725886959963449
    ],
    [
      0.7007216667205797, -0.5567652138925084, -1.2471185591915708,
      -0.790838582873276, 0.2579839534068737, 0.4073481703079768,
      0.6587927292756537, 0.21425781558990944, -0.2701818150006148,
      0.7708169929492528
    ],
    [
      -0.37277736691311086, 0.5693765902803378, 0.9098969371841819,
      -1.4623197030289157, -0.29268092422203607, -1.4656185832251822,
      1.5678040698457423, 0.25551505343281905, 1.8314265747239564,
      -1.3729215857689827
    ],
    [
      -0.43867398526979584, -0.796636732477674, 0.2359862436858926,
      1.4901560784410552, -1.7594043552747123, -1.2310209761561484,
      -1.493746129072756, 0.29612017330175106, 1.746419280738681,
      1.4533147542053837
    ],
    [
      1.712166896359392, 0.07525333343231944, -0.39137399872007084,
      -1.547690317211488, -1.5111199516170633, 0.24645581121007526,
      -0.6811748520116493, 1.7905571256452053, 0.6277687364975105,
      -0.6736790789366688
    ],
    [
      1.062586330305623, 0.3478111205180787, -0.21619311914147016,
      -0.32994670404292187, 0.48340659137215514, -0.4504933457671697,
      -0.16974642471145052, -0.8707110570410328, 0.27509537789883526,
      0.378824144932136
    ],
    [
      -0.48147917964171044, 0.8817483321358887, 1.2330327107924062,
      -1.3081701838326625, 0.786766773839245, -1.0171812580732484,
      1.284216518021535, 0.7222408275082898, -1.0394706606993231,
      -0.6293053328058812
    ],
    [
      -0.5266160146552076, -0.6524957413306541, -0.47705032980725287,
      -0.4302890704432108, 0.5067451045279524, 0.33363753164625776,
      -0.40553381463543003, -1.1350768442285397, -0.6470704115488481,
      2.2872906210139776
    ],
    [
      -0.33332875186112976, 0.1674339643577856, 0.12151552737729546,
      -0.30565912232637843, -0.3518446786088078, -0.05952634034019075,
      -0.3316037080155704, 1.6767026680689503, -0.08957455237188151,
      -0.003746768699896237
    ],
    [
      0.0337530901278442, -0.29207742287745414, -0.7539254001383847,
      -0.3017480925064063, 0.9568588483138885, -0.5965118968880455,
      -0.3691361854863083, -0.4207856662585419, 0.41646287807313526,
      0.9865998176923882
    ],
    [
      0.13755271569565902, -0.22831474436046656, -0.8298796603920628,
      -1.0484597999048697, 0.9858853775534857, 1.0356009804931134,
      0.9080820625929364, 0.7706323372464414, -0.6776733095561168,
      -0.8341363442380745
    ],
    [
      -0.37027380916135566, 0.8398080562020946, -0.763788388163617,
      -0.04204219217951668, -0.492837271666632, 1.0141568771307825,
      -0.8478386011088894, 1.1318894925697656, -0.6932759247025303,
      0.16251514085521257
    ],
    [
      -0.8888704860877872, -0.26549913675343817, 1.3994807081462521,
      1.0785341599776783, -0.5361863043841457, -0.13137218616828705,
      -0.1819525597092967, 0.5243382812702282, 0.9117642703002591,
      -1.4003228037593403
    ],
    [
      -0.2851034349331239, -0.7217370881245911, 0.5898161295430808,
      -0.6434573515554788, 1.905898709851378, -0.4966639644510776,
      -0.2831111487304135, -0.28258067519354163, -1.777683002181682,
      1.5606714743619876
    ],
    [
      -0.8495349844253826, -0.6457907716069299, 0.708368808358578,
      0.12056690808414458, 0.0421828721376421, 1.6810751709980658,
      0.255196885120731, -1.224402747733137, 2.0480628297675048,
      -1.212418123208887
    ],
    [
      0.5106474080496356, 0.1201493831496143, -0.27351848084186103,
      0.044156274759426815, 0.16470499340587316, 0.000434472806415447,
      0.1721853456254251, 0.17973205029566547, -0.3544345150939577,
      -0.3771943751659963
    ],
    [
      -1.1655863251497618, 0.5915491090807163, -1.5404168343089695,
      -1.4460572088105905, 0.004468218666076227, 0.9663455375392938,
      1.976115287954451, -1.6751571516464903, -0.04205172698879766,
      1.6938386299938495
    ],
    [
      -0.38747117858276875, 0.798565505559309, 0.1449503219253701,
      1.3464756620306904, 1.3923001661136134, -2.8754907420052236,
      -1.1173548048214774, 0.9940113505995075, -0.6061643843539231,
      0.9381005218537294
    ],
    [
      1.2854823610295156, -1.7300234091058264, -0.9857466215879392,
      2.038379453778842, -1.8431536167111386, 1.483423860215055,
      1.2781978888405416, -2.1862755431776435, 2.405096895299401,
      -1.0485404832125331
    ],
    [
      -1.9288501898201078, 1.5966739647264416, -1.100498791332411,
      1.474406347476548, -0.2571810043933693, 2.123013269092972,
      -1.3383347115651367, -1.7152079553688164, 0.0449572135636555,
      0.8470219784363766
    ],
    [
      -0.502696899675486, 0.31938250062957096, 0.36604051117281,
      -0.40406218128539406, -0.1730912836104906, -0.8795227809451097,
      0.5478828384018168, 1.595906038220245, -0.5892417217293489,
      -1.1951199585552645
    ],
    [
      -1.4554335820636872, -0.2359844534197184, 1.2338484276537152,
      1.7455067236930935, -0.5463185816692168, -1.163069284308878,
      -1.2399621183926317, 1.2070584019274175, 1.7996815675615876,
      -1.6740923638401086
    ],
    [
      -0.6370080631178451, 0.3401144765997544, -2.16051805508754,
      1.0437606696443065, 1.780743021316945, -1.5333925736290117,
      -1.437281471055274, 0.7265009554009694, 0.9132006806845552,
      1.4371435955141039
    ],
    [
      -0.05913281549347259, -1.1019529352107855, 1.5605511012058981,
      -0.7194416317616456, 1.7743530693370522, 0.318105540093803,
      0.6043755310575087, 0.19536960944392737, -0.15453532210333976,
      -1.522681250109801
    ],
    [
      -2.433390471684545, 0.8775460618659316, 0.1422902797654329,
      1.1639643741337438, 2.1749579183544796, 1.7563364083194597,
      -1.105635680869827, -1.1281018628448005, -0.47514886301681875,
      -0.7570634917175805
    ]
  ],
  "bias": [
    -0.4621803651648663, -0.026019363438728512, 0.10959145178493214,
    -0.24082237191304368, -0.17598108374014224, 0.2309671634108062,
    -0.8145688188671457, -0.1447805968716775, 0.5075067965009888,
    1.016287188299016
  ]
}
