{
  "weights": [
    [
      [
        [
          0.45510035588291503, -0.7245232749269265, -1.1586932917298858,
          0.7100457562874453
        ]
      ],
      [
        [
          1.2953952655492915, -0.6822819867933833, 0.7882544499551688,
          -0.19424774788129517
        ]
      ],
      [
        [
          0.4557067114449674, 0.013673071058863605, 0.5866798243974584,
          -0.483244869205256
        ]
      ]
    ],
    [
      [
        [
          -0.10306630349981102, 1.7192596440903571, -0.35755921055476314,
          -0.48734211869457905
        ]
      ],
      [
        [
          -0.017283949564482398, 1.2224668373368137, 0.7679104271419681,
          -0.1755729150603549
        ]
      ],
      [
        [
          -0.3431960921577382, 0.40702376979997523, 0.20985765734788908,
          -0.275143983070658
        ]
      ]
    ],
    [
      [
        [
          -1.212224316021575, -1.1624706461647571, 0.30211947736914246,
          -0.35235976312386247
        ]
      ],
      [
        [
          -1.0716660912833256, -0.7326672817193265, 0.16937080689485884,
          -0.5660964709633285
        ]
      ],
      [
        [
          -0.03288101138839618, -0.5031865892514986, 0.0462273101080432,
          -0.38119930615299985
        ]
      ]
    ]
  ],
  "bias": [
    -0.24115667974379293, -0.2384058402669595, -0.6548108474384176,
    0.43768423252950783
  ]
}
