{
  "weights": [
    [
      0.43205989327863936, 0.218939086376298, 0.22036189251995186,
      0.5142537593141726, 0.2928500780793449, -0.055203784869451065,
      -0.07819862703378044, 0.014598281731767176, 0.24492183783436527,
      -0.4260978154610444
    ],
    [
      -0.5602398222558983, -0.24019356552232013, 0.36159866344574954,
      0.2575273076079009, 0.02509496392106136, 0.3239196751389569,
      -0.43186591535898883, 0.626619133213798, -0.12582993980611706,
      -0.22973935450650507
    ],
    [
      0.19975552910565486, -0.21252025698389418, 0.1370848033885733,
      -0.12067500174392441, 0.38179432713873895, -0.4314822802549281,
      -0.012595417872373874, 0.1021629909806583, 0.16831479071988165,
      -0.13776217521680356
    ],
    [
      0.050625244378953854, -0.49404541711880445, -0.37399772182384106,
      -0.2855860084808527, -0.6694328371429721, 0.7384023422281931,
      -0.047036415278308506, -0.1533122933317599, 0.17013092759339135,
      0.3633464368798372
    ],
    [
      -0.38025909079714487, -0.2945384955299226, 0.5385362156133914,
      0.0996136229825013, -0.08632005283052224, 0.020507269248056355,
      -0.12885280283549208, 0.2438942263359371, 0.3297149865025766,
      -0.029783809464802278
    ],
    [
      0.020030572966723212, 0.08611365224729314, 0.5215959457894497,
      0.34370791010831725, -0.26018814519595457, -0.09280218482027038,
      -0.030318750740407102, 0.022758003454947946, 0.8215034525773894,
      -0.5205080343859293
    ],
    [
      -0.044912680184869165, 0.1544786310967182, -0.6181899886808819,
      -0.49195026834862643, 0.37334469721568947, 0.05700529564556326,
      0.32127885114487426, -0.6025246267338026, 0.36137459252982584,
      0.2738302417887052
    ],
    [
      -0.23999130933428095, 0.43905590651446025, 0.16604077398051595,
      -0.3717760188900682, 0.06335484365375828, -0.09965741039481188,
      0.23362093566519837, 0.5291540744794105, -0.2250885654666801,
      0.6043926355887014
    ],
    [
      -0.25295458964507284, -0.21924038082356603, 0.16794510434409982,
      0.23716085179961965, 0.13518981062988586, -0.03087941186492179,
      0.16845033599258047, -0.553613808271865, 0.08864092884128369,
      0.0715962333542074
    ],
    [
      -0.4344087895676042, -0.44708197154808943, -0.2596329786470045,
      0.9568880325014469, -0.1901474668376111, 0.572035679416241,
      -0.055286097445323625, -0.34389282673341426, 0.1387413293081251,
      0.32726041392978256
    ],
    [
      0.2683268195126511, -0.5433402106193276, 0.35548308488183233,
      -0.25184550566979613, 0.9543405299236752, -0.07605884675245216,
      0.1679843968910598, -0.47372457285202113, 0.073544668769261,
      0.7142858196928838
    ],
    [
      0.4768518440721459, -0.28815946994607056, 0.12396822508652074,
      -0.2557378420192038, -0.09460111454742087, 0.3840726488681293,
      -0.12521892325581757, -0.18480494847179507, 0.4226250286557968,
      -0.3604182434697095
    ],
    [
      0.8024000700577321, -0.18357666586325097, -0.3127341052477209,
      0.008887209009455626, -0.40202486424679523, 0.06300118949118413,
      0.5235574681729744, -0.503991932201889, -0.28514040855522144,
      -0.5524298565772184
    ],
    [
      0.32312135631322536, -0.07917432611434735, 0.20422153704789497,
      -0.08473079067461899, 0.6559717841404864, 0.1870845762900739,
      -0.21946149729715536, 0.09548438786063841, -0.20535342815476473,
      0.17342628282124006
    ],
    [
      -0.3237166928407691, 0.21606754854559634, 0.4307024228210157,
      -0.09464080410635882, -0.23787424638052893, -0.13379268209649586,
      0.2967002864920709, 0.4233604120296324, -0.6059995895852844,
      -0.5474527434964892
    ],
    [
      0.09304424053045972, 0.48658140507008524, 0.13923266306963347,
      0.46811357993979863, 0.055262172824232035, -0.534078475876852,
      -1.0235796217337263, 0.5381377132008192, -0.2735537307686349,
      0.4557789686936434
    ],
    [
      -0.27292042380003007, 0.12109465656363226, -0.018968891066038652,
      -0.3618283100394191, -0.006532962633908264, -0.5613440299264265,
      -0.18421217789797945, -0.208160864140195, -0.19590894705501155,
      0.2637456098136825
    ],
    [
      0.2041427563628807, 0.2848435441911595, 0.710147053898593,
      0.009811996077937543, -0.5271554078696545, -0.13535074772356,
      -0.007914151775759281, -0.24888704738126305, -0.13223596982616864,
      0.03775732617173555
    ],
    [
      -0.745673007550597, 0.6364383485539292, 0.3542092862339567,
      -0.03901662988791523, -0.16067059491559227, 0.1071344740475679,
      -0.33739009954648447, -0.2909890014439758, -0.22682105540646705,
      0.14373747010903612
    ],
    [
      -0.3873555788392612, -0.20775183326504815, -0.15587101873891487,
      0.07357962004424573, 0.031775389214019505, -0.01654108447547446,
      -0.04449035223164807, 0.7837760287908915, -0.14907020128925075,
      0.11977811682333078
    ],
    [
      -0.290591530829752, 0.455944687753532, -0.17345644139912808,
      -0.053978627116291505, 0.21033584609673894, 0.6002830919498269,
      0.16769371358232785, -0.4183361104766277, 0.07828780762678375,
      -0.5531779483103862
    ],
    [
      0.15893605954051168, 0.5675050853262715, 0.17319846685127352,
      0.18320004952097704, -0.01036381395355759, -0.11183462410866621,
      -0.43760991226384727, 0.3334066115131723, -0.4213745723710265,
      0.27048020490090907
    ],
    [
      0.7384006675536082, -0.26763746333985394, 0.618752401279586,
      0.03949991900735358, -0.19698306764717843, -0.22411594573250476,
      -0.20882295173602614, 0.013834710544909833, -0.30180463924165285,
      0.23657652141379915
    ],
    [
      -0.13792872418273355, 0.7638801658010577, -0.4221321137322759,
      -0.5156075570620495, 0.49754174729786926, -0.2222606917021327,
      0.16661205992173025, 0.23873424144393612, 0.3276104615656973,
      -0.21275866861478704
    ],
    [
      -0.20493937247456862, -0.14075932599761934, -0.07074595794358342,
      0.32107116286517595, 0.27838333109434577, 0.16094276873976648,
      -0.2661634162702971, -0.03227038233635173, -0.5901530079611996,
      -0.5450796726368194
    ],
    [
      0.27393660212805376, 0.28483946203971955, 0.0890967354315471,
      0.49238259577176446, 0.0722722472833029, -0.14801795776311116,
      0.36249771994485036, -0.4711155758404604, -0.4201868826062002,
      -0.3157538073045422
    ],
    [
      -0.228326575280761, 0.026047026940499568, 0.2468730225126376,
      0.0888568700551033, -0.35893743028034863, 0.12224958246004647,
      0.6342942360709304, -0.16038493374963458, 0.08997182449343599,
      0.16270939009569066
    ],
    [
      0.3220586169855507, -0.44812578135286496, -0.07013554105789985,
      -0.5470749839191474, -0.05110405068307435, -0.6193651377888031,
      0.08853786791913071, 0.40794186578811376, 0.41525020880406527,
      0.40088802921105127
    ],
    [
      -0.2808182743967765, 0.44256667150900475, -0.45888838909567636,
      -0.41082478884704243, -0.009564007339333123, 0.2433209901997078,
      0.7331512300749647, 0.18663384894816895, -0.06057560338628854,
      -0.5424386150948743
    ],
    [
      -0.10123789651796788, 0.5459523348476861, 0.24551431081668837,
      -0.3522185640998077, -0.21038355806510572, 0.7594368617141019,
      -0.3628086659831746, 0.09951022988302224, 0.14578909273741872,
      -0.08489695273166689
    ],
    [
      0.07979886818264585, -0.245995075341852, 0.19932990373856768,
      -0.18187718095913652, 0.22032051264857427, 0.0505560866825174,
      0.44455013828734546, -0.18086636968740458, 0.03992945697601211,
      -0.2655354381663147
    ],
    [
      -0.631352708623451, -0.041389559671667936, -0.003114984631004428,
      0.22214027406863288, -0.0817287409285546, 0.015991754560425914,
      0.40401453275776283, 0.10337143413130857, -0.09780950438931994,
      0.49843132958331976
    ]
  ],
  "bias": [
    0.06078600565191795, -0.16871925410622324, -0.13256335727161292,
    0.0015206570116987298, 0.12045522301522082, -0.11282097965163247,
    -0.20051592263491488, -0.07624175724950229, 0.4109410952646762,
    0.09715828997068854
  ]
}
